<?xml version="1.0"?>
<opencv_storage>
<DigitOCR type_id="opencv-ml-ann-mlp">
  <layer_sizes type_id="opencv-matrix">
    <rows>1</rows>
    <cols>3</cols>
    <dt>i</dt>
    <data>
      15 10 2</data></layer_sizes>
  <activation_function>SIGMOID_SYM</activation_function>
  <f_param1>5.9999999999999998e-001</f_param1>
  <f_param2>1.</f_param2>
  <min_val>-9.4999999999999996e-001</min_val>
  <max_val>9.4999999999999996e-001</max_val>
  <min_val1>-9.7999999999999998e-001</min_val1>
  <max_val1>9.7999999999999998e-001</max_val1>
  <training_params>
    <train_method>BACKPROP</train_method>
    <dw_scale>1.0000000000000001e-001</dw_scale>
    <moment_scale>1.0000000000000001e-001</moment_scale>
    <term_criteria><epsilon>9.9999999747524271e-007</epsilon>
      <iterations>1000</iterations></term_criteria></training_params>
  <input_scale>
    5.7337998099567550e-002 -4.7822197816258951e+000
    2.6461467112702985e-001 -2.9091580235769006e+000
    1.2586665265708947e+000 -1.2883034323083624e+000
    3.7426276620201016e-001 -2.1159430027205071e+000
    3.3175578101625829e-003 -2.0966668115127836e+000
    3.0454593956803194e+001 -5.3222004368635343e+000
    2.1256086659445921e+002 -2.6077812847710430e-001
    3.3673884046167641e+000 -2.4246168137518840e+001
    2.1063654637004684e+003 -3.5932963446182442e+000
    9.4448745201700914e+005 -2.4344699626295419e-001 1.
    -9.3224650315670744e-011 1. -4.7345934317753162e-011 1.
    -1.3215026774195111e-019 1. -5.1961449810537198e-014 1.
    -9.0434127285562397e-021</input_scale>
  <output_scale>
    227158990. -2.1580103950000000e+008 227158990.
    -2.1580103950000000e+008</output_scale>
  <inv_output_scale>
    4.4022030561062097e-009 9.4999999559779691e-001
    4.4022030561062097e-009 9.4999999559779691e-001</inv_output_scale>
  <weights>
    <_>
      -1.3593370793514568e+001 -2.1903490470285017e-001
      8.7381344697823167e+000 1.4706829489707890e-001
      4.9797476071755984e+000 -6.6496992665489518e+000
      -2.0954294850575672e+000 1.1825730491289288e+001
      -1.0898162259918195e+001 -3.2467867453881718e+000
      9.6642874051825700e+000 3.1693699262222172e+000
      -8.8415388499241789e+000 1.8148235431529347e-001
      8.5562711749674598e+000 2.8873341010880869e+000
      -1.8511725335564488e+000 9.0614356513720828e+000
      -4.6792779820196735e+000 7.9504808590051077e+000
      1.2014240270173481e+001 -1.4875764269908316e+000
      -3.3964103149254967e+000 -1.6302632711806011e-002
      4.1028288200510312e+000 -6.4790759878735340e+000
      1.5365501337813800e+001 1.0698853139454043e+000
      5.4539952962165259e+000 -1.0182135196108250e+001
      2.1547282108733313e+001 4.4118498635406294e+000
      -1.9176460632216201e+000 -2.4091878404871290e+000
      -8.1465958035829100e+000 4.3803980936708555e+000
      -4.7179225947197647e+000 -5.6258840394246370e+000
      -1.8962051332123957e+000 2.5738816997352063e+000
      -3.2707009196977876e-001 -7.4676233205618363e+000
      3.7302338172202711e+000 -1.5642893132936265e+001
      -1.0927929698468404e+001 7.9650617446478007e+000
      -1.4199588091477002e+000 4.8984857015682470e+000
      -1.0392228886533493e+001 6.0987151494670622e-001
      -8.0028249159903595e+000 2.8096886527278739e+000
      8.4311418624469181e-001 -4.5430344154161677e+000
      -1.3807125324028217e+001 -6.1100028367112662e+000
      -7.1914874631523107e-001 -5.7117791773269486e+000
      2.8197303600705612e+000 5.9372308098813065e+000
      -5.1150718881551276e+000 -5.7226419314927235e-001
      6.7306394313604878e+000 6.5262085414306570e-001
      -1.7522522231331708e-001 -4.0708999919418815e-001
      2.2746275412126913e+000 -1.7492635010956519e+000
      1.5828645749190313e+000 -1.7357139037652898e+000
      -2.2028414890704298e+000 3.9489945471518060e+000
      3.9120546986389626e+000 -4.6729192827890778e+000
      5.5274917604922438e+000 2.3987335024617025e+000
      -1.6735374214840095e+000 2.7869782824553320e+000
      -3.1673629098509144e+000 1.5750457736914312e+001
      -7.6055670055044331e+000 -9.1560713241433369e+000
      8.3316704647192346e+000 -1.0067526329507668e+001
      -5.1178730713668816e+000 9.0357017925268934e+000
      -6.9257369822394619e+000 -4.4249243981313517e+000
      -1.6748404877165356e+001 4.3207341588451529e+000
      -4.9001143618880887e+000 5.9987346599603582e+000
      1.7561412902471709e+000 -3.3321098952777878e-001
      -1.4275067250315265e+000 2.8129891896576957e+000
      1.4280195699610996e+001 5.1561983633672626e-001
      -7.1993941766819010e+000 5.8584481949382319e+000
      3.3246391086357414e-002 9.6340708267431130e-002
      1.1225036409460450e-001 1.2882348518325859e-001
      2.3607073747265415e-002 -7.6134469625701306e-002
      -7.2946011680288303e-002 -7.0057243877394504e-003
      6.5278115459450198e-002 -2.9912529167067315e-002
      -1.1997411717816817e-001 7.9147638451996502e-002
      -9.5020044713793134e-002 -2.9970805883102686e-003
      -6.4551421118488425e-002 8.8140705269946967e-002
      5.1352684374836789e-002 -6.5173723627769270e-002
      1.0634679283524545e-001 -7.8966196474939306e-003
      4.2531820138609865e-002 6.2919832643905035e-002
      -1.1366324418325430e-001 -8.4714697469226843e-002
      -5.6036113895248985e-002 -2.6456077323401217e-002
      9.5674488896255044e-002 -1.0371817960092972e-001
      -7.3713015709267610e-002 6.2025687306107101e-002
      1.0215988206682042e-002 9.8673431737131279e-002
      -5.2757819801960384e-002 -9.9922383558804229e-002
      1.8199778006817297e-003 9.2845757523392650e-002
      6.3615662616105725e-002 3.6982728027117336e-002
      9.3625141943088713e-002 -8.3254046992147765e-002
      -4.1162234702856793e-002 6.8814738480408991e-002
      9.8827239737543648e-002 -6.9391039804158630e-002
      6.8287267420763395e-002 -2.0343810713275300e-002
      1.0829150910999927e-001 -1.0658080754673452e-001
      -8.3047196600352494e-002 8.7525553080324170e-002
      -4.7684300678038065e+000 -3.7372832226034287e+000
      -4.8139404853964765e+000 7.2079983568623165e+000
      -1.0260399621287146e+001 -1.0815396949598915e+001
      1.9085989300262214e+000 3.4148143599235383e+000
      1.4254336190491119e+000 1.3847542780314010e+001</_>
    <_>
      5.4443491409339873e-001 -5.4447006192562775e-001
      -1.3471940644455170e+001 1.3472616178781632e+001
      1.6533025732673345e+001 -1.6533882662050289e+001
      9.0914565321617857e+000 -9.0919317191464497e+000
      8.1569371578991756e+000 -8.1573840307573349e+000
      -1.1698792058948960e+001 1.1699369763434229e+001
      2.1063939214906977e+001 -2.1065027136263922e+001
      -6.2522103400327511e+000 6.2525232299394782e+000
      -1.4068841989738759e+001 1.4069564436707134e+001
      9.3797676757117223e+000 -9.3802481365696870e+000
      1.5332536144823852e+001 -1.5333344667356673e+001</_></weights></DigitOCR>
</opencv_storage>
